<?xml version="1.0"?>
<opencv_storage>
<cascade>
  <stageType>BOOST</stageType>
  <featureType>HAAR</featureType>
  <height>40</height>
  <width>80</width>
  <stageParams>
    <boostType>GAB</boostType>
    <minHitRate>9.9900001287460327e-01</minHitRate>
    <maxFalseAlarm>5.0000000000000000e-01</maxFalseAlarm>
    <weightTrimRate>9.4999999999999996e-01</weightTrimRate>
    <maxDepth>1</maxDepth>
    <maxWeakCount>100</maxWeakCount></stageParams>
  <featureParams>
    <maxCatCount>0</maxCatCount>
    <featSize>1</featSize>
    <mode>ALL</mode></featureParams>
  <stageNum>20</stageNum>
  <stages>
    <!-- stage 0 -->
    <_>
      <maxWeakCount>5</maxWeakCount>
      <stageThreshold>-1.4308286905288696e+00</stageThreshold>
      <weakClassifiers>
        <_>
          <internalNodes>
            0 -1 39 -9.8948933184146881e-02</internalNodes>
          <leafValues>
            8.2098174095153809e-01 -8.0748665332794189e-01</leafValues></_>
        <_>
          <internalNodes>
            0 -1 124 1.4076434075832367e-02</internalNodes>
          <leafValues>
            -7.5404310226440430e-01 7.0902818441390991e-01</leafValues></_>
        <_>
          <internalNodes>
            0 -1 73 1.5758968889713287e-02</internalNodes>
          <leafValues>
            -8.7237149477005005e-01 4.1288238763809204e-01</leafValues></_>
        <_>
          <internalNodes>
            0 -1 14 -7.9008219763636589e-03</internalNodes>
          <leafValues>
            5.2044981718063354e-01 -7.2432315349578857e-01</leafValues></_>
        <_>
          <internalNodes>
            0 -1 74 -4.2357147322036326e-04</internalNodes>
          <leafValues>
            4.4214183092117310e-01 -6.7579180002212524e-01</leafValues></_></weakClassifiers></_>
    <!-- stage 1 -->
    <_>
      <maxWeakCount>8</maxWeakCount>
      <stageThreshold>-1.3748185634613037e+00</stageThreshold>
      <weakClassifiers>
        <_>
          <internalNodes>
            0 -1 4 -4.2478692531585693e-01</internalNodes>
          <leafValues>
            7.1169537305831909e-01 -7.7464789152145386e-01</leafValues></_>
        <_>
          <internalNodes>
            0 -1 121 -1.9842389971017838e-02</internalNodes>
          <leafValues>
            4.8266604542732239e-01 -6.4995896816253662e-01</leafValues></_>
        <_>
          <internalNodes>
            0 -1 6 -2.1652076393365860e-02</internalNodes>
          <leafValues>
            5.7263004779815674e-01 -5.5050158500671387e-01</leafValues></_>
        <_>
          <internalNodes>
            0 -1 72 1.3548743445426226e-03</internalNodes>
          <leafValues>
            -3.8959902524948120e-01 7.2933864593505859e-01</leafValues></_>
        <_>
          <internalNodes>
            0 -1 34 -4.6100001782178879e-02</internalNodes>
          <leafValues>
            4.9767598509788513e-01 -5.2321457862854004e-01</leafValues></_>
        <_>
          <internalNodes>
            0 -1 127 6.8215806968510151e-03</internalNodes>
          <leafValues>
            -3.7163585424423218e-01 6.9055467844009399e-01</leafValues></_>
        <_>
          <internalNodes>
            0 -1 78 -1.2328178854659200e-03</internalNodes>
          <leafValues>
            4.8250946402549744e-01 -4.8476675152778625e-01</leafValues></_>
        <_>
          <internalNodes>
            0 -1 30 -3.0775894410908222e-03</internalNodes>
          <leafValues>
            -9.2443174123764038e-01 2.8329214453697205e-01</leafValues></_></weakClassifiers></_>
    <!-- stage 2 -->
    <_>
      <maxWeakCount>5</maxWeakCount>
      <stageThreshold>-1.3156710863113403e+00</stageThreshold>
      <weakClassifiers>
        <_>
          <internalNodes>
            0 -1 12 -2.5553613901138306e-02</internalNodes>
          <leafValues>
            2.6724138855934143e-01 -8.1338030099868774e-01</leafValues></_>
        <_>
          <internalNodes>
            0 -1 49 -8.3017617464065552e-02</internalNodes>
          <leafValues>
            5.2632635831832886e-01 -5.8732044696807861e-01</leafValues></_>
        <_>
          <internalNodes>
            0 -1 57 -2.8069844469428062e-02</internalNodes>
          <leafValues>
            5.2678883075714111e-01 -5.8212423324584961e-01</leafValues></_>
        <_>
          <internalNodes>
            0 -1 87 -8.3496805746108294e-04</internalNodes>
          <leafValues>
            4.6285900473594666e-01 -6.2154752016067505e-01</leafValues></_>
        <_>
          <internalNodes>
            0 -1 133 2.2117225453257561e-03</internalNodes>
          <leafValues>
            -9.0461820363998413e-01 2.8067374229431152e-01</leafValues></_></weakClassifiers></_>
    <!-- stage 3 -->
    <_>
      <maxWeakCount>6</maxWeakCount>
      <stageThreshold>-1.7822980880737305e+00</stageThreshold>
      <weakClassifiers>
        <_>
          <internalNodes>
            0 -1 9 -4.3216399848461151e-02</internalNodes>
          <leafValues>
            4.1242939233779907e-01 -7.5922954082489014e-01</leafValues></_>
        <_>
          <internalNodes>
            0 -1 110 -5.1180650480091572e-03</internalNodes>
          <leafValues>
            2.9613596200942993e-01 -7.9177284240722656e-01</leafValues></_>
        <_>
          <internalNodes>
            0 -1 123 1.2641864828765392e-02</internalNodes>
          <leafValues>
            -4.0509605407714844e-01 7.3925882577896118e-01</leafValues></_>
        <_>
          <internalNodes>
            0 -1 21 -9.5738366246223450e-02</internalNodes>
          <leafValues>
            5.5713707208633423e-01 -4.3473601341247559e-01</leafValues></_>
        <_>
          <internalNodes>
            0 -1 107 -1.8635425716638565e-02</internalNodes>
          <leafValues>
            3.8545161485671997e-01 -6.6503036022186279e-01</leafValues></_>
        <_>
          <internalNodes>
            0 -1 71 7.8114203643053770e-04</internalNodes>
          <leafValues>
            -1. 2.2308470308780670e-01</leafValues></_></weakClassifiers></_>
    <!-- stage 4 -->
    <_>
      <maxWeakCount>4</maxWeakCount>
      <stageThreshold>-1.1388024091720581e+00</stageThreshold>
      <weakClassifiers>
        <_>
          <internalNodes>
            0 -1 58 -1.4356298372149467e-02</internalNodes>
          <leafValues>
            1.3043478131294250e-01 -7.9159051179885864e-01</leafValues></_>
        <_>
          <internalNodes>
            0 -1 64 -3.4689765889197588e-03</internalNodes>
          <leafValues>
            3.4879797697067261e-01 -6.2565726041793823e-01</leafValues></_>
        <_>
          <internalNodes>
            0 -1 45 9.5380693674087524e-03</internalNodes>
          <leafValues>
            1.9822868704795837e-01 -9.6520346403121948e-01</leafValues></_>
        <_>
          <internalNodes>
            0 -1 18 -3.5118297673761845e-03</internalNodes>
          <leafValues>
            2.5080081820487976e-01 -8.9423859119415283e-01</leafValues></_></weakClassifiers></_>
    <!-- stage 5 -->
    <_>
      <maxWeakCount>5</maxWeakCount>
      <stageThreshold>-1.4445718526840210e+00</stageThreshold>
      <weakClassifiers>
        <_>
          <internalNodes>
            0 -1 2 -3.2628484070301056e-02</internalNodes>
          <leafValues>
            2.8138527274131775e-01 -8.1722319126129150e-01</leafValues></_>
        <_>
          <internalNodes>
            0 -1 70 3.3366203308105469e-02</internalNodes>
          <leafValues>
            -9.2229121923446655e-01 2.4909703433513641e-01</leafValues></_>
        <_>
          <internalNodes>
            0 -1 126 1.5108529478311539e-02</internalNodes>
          <leafValues>
            -3.7430667877197266e-01 8.7260347604751587e-01</leafValues></_>
        <_>
          <internalNodes>
            0 -1 53 -3.8386178202927113e-03</internalNodes>
          <leafValues>
            3.8101810216903687e-01 -6.9289147853851318e-01</leafValues></_>
        <_>
          <internalNodes>
            0 -1 25 -5.7920991821447387e-05</internalNodes>
          <leafValues>
            -8.2735443115234375e-01 2.8823119401931763e-01</leafValues></_></weakClassifiers></_>
    <!-- stage 6 -->
    <_>
      <maxWeakCount>6</maxWeakCount>
      <stageThreshold>-1.4668738842010498e+00</stageThreshold>
      <weakClassifiers>
        <_>
          <internalNodes>
            0 -1 8 -3.8535654544830322e-02</internalNodes>
          <leafValues>
            6.2068965286016464e-02 -8.1960785388946533e-01</leafValues></_>
        <_>
          <internalNodes>
            0 -1 63 -1.9913565367460251e-02</internalNodes>
          <leafValues>
            1.9010470807552338e-01 -7.3926180601119995e-01</leafValues></_>
        <_>
          <internalNodes>
            0 -1 44 -1.2960445135831833e-02</internalNodes>
          <leafValues>
            -8.8296014070510864e-01 1.9890955090522766e-01</leafValues></_>
        <_>
          <internalNodes>
            0 -1 100 -6.7980438470840454e-03</internalNodes>
          <leafValues>
            -1. 1.3835987448692322e-01</leafValues></_>
        <_>
          <internalNodes>
            0 -1 35 -4.2742174118757248e-03</internalNodes>
          <leafValues>
            -6.4809823036193848e-01 2.6061463356018066e-01</leafValues></_>
        <_>
          <internalNodes>
            0 -1 98 -1.8853797810152173e-03</internalNodes>
          <leafValues>
            6.9093519449234009e-01 -3.5338512063026428e-01</leafValues></_></weakClassifiers></_>
    <!-- stage 7 -->
    <_>
      <maxWeakCount>7</maxWeakCount>
      <stageThreshold>-1.2404444217681885e+00</stageThreshold>
      <weakClassifiers>
        <_>
          <internalNodes>
            0 -1 111 -8.3830086514353752e-03</internalNodes>
          <leafValues>
            4.7761192917823792e-01 -6.9669669866561890e-01</leafValues></_>
        <_>
          <internalNodes>
            0 -1 38 3.3578768372535706e-02</internalNodes>
          <leafValues>
            -8.7025374174118042e-01 1.6453851759433746e-01</leafValues></_>
        <_>
          <internalNodes>
            0 -1 7 -3.3345200121402740e-02</internalNodes>
          <leafValues>
            3.7539142370223999e-01 -5.6142812967300415e-01</leafValues></_>
        <_>
          <internalNodes>
            0 -1 131 7.5829077104572207e-05</internalNodes>
          <leafValues>
            2.7538794279098511e-01 -7.9649436473846436e-01</leafValues></_>
        <_>
          <internalNodes>
            0 -1 125 6.4843305153772235e-05</internalNodes>
          <leafValues>
            2.0591291785240173e-01 -7.7216261625289917e-01</leafValues></_>
        <_>
          <internalNodes>
            0 -1 103 3.7124487571418285e-03</internalNodes>
          <leafValues>
            2.4627354741096497e-01 -7.6054108142852783e-01</leafValues></_>
        <_>
          <internalNodes>
            0 -1 27 -5.9888858231715858e-05</internalNodes>
          <leafValues>
            -8.0461549758911133e-01 2.3035483062267303e-01</leafValues></_></weakClassifiers></_>
    <!-- stage 8 -->
    <_>
      <maxWeakCount>7</maxWeakCount>
      <stageThreshold>-1.1650847196578979e+00</stageThreshold>
      <weakClassifiers>
        <_>
          <internalNodes>
            0 -1 129 1.1028262786567211e-02</internalNodes>
          <leafValues>
            -6.3790667057037354e-01 5.4838711023330688e-01</leafValues></_>
        <_>
          <internalNodes>
            0 -1 2 -2.3303804919123650e-02</internalNodes>
          <leafValues>
            3.0309009552001953e-01 -5.9412938356399536e-01</leafValues></_>
        <_>
          <internalNodes>
            0 -1 0 -8.9311884948983788e-05</internalNodes>
          <leafValues>
            -7.0154690742492676e-01 2.5475949048995972e-01</leafValues></_>
        <_>
          <internalNodes>
            0 -1 24 -3.5533595085144043e-01</internalNodes>
          <leafValues>
            2.2689625620841980e-01 -9.4785338640213013e-01</leafValues></_>
        <_>
          <internalNodes>
            0 -1 93 -3.0212807469069958e-03</internalNodes>
          <leafValues>
            6.7699915170669556e-01 -3.3098524808883667e-01</leafValues></_>
        <_>
          <internalNodes>
            0 -1 61 -6.8565621040761471e-04</internalNodes>
          <leafValues>
            2.8274923563003540e-01 -7.0729142427444458e-01</leafValues></_>
        <_>
          <internalNodes>
            0 -1 40 -1.1436925269663334e-03</internalNodes>
          <leafValues>
            8.0853217840194702e-01 -2.7364724874496460e-01</leafValues></_></weakClassifiers></_>
    <!-- stage 9 -->
    <_>
      <maxWeakCount>5</maxWeakCount>
      <stageThreshold>-1.0436390638351440e+00</stageThreshold>
      <weakClassifiers>
        <_>
          <internalNodes>
            0 -1 84 -1.8229319248348475e-03</internalNodes>
          <leafValues>
            5.2727270126342773e-01 -6.6376811265945435e-01</leafValues></_>
        <_>
          <internalNodes>
            0 -1 67 -7.9900277778506279e-03</internalNodes>
          <leafValues>
            4.1717734932899475e-01 -5.1326447725296021e-01</leafValues></_>
        <_>
          <internalNodes>
            0 -1 136 -1.0111802839674056e-04</internalNodes>
          <leafValues>
            -6.7857372760772705e-01 2.9980015754699707e-01</leafValues></_>
        <_>
          <internalNodes>
            0 -1 47 7.0455566048622131e-02</internalNodes>
          <leafValues>
            1.8474946916103363e-01 -9.6308511495590210e-01</leafValues></_>
        <_>
          <internalNodes>
            0 -1 99 -7.2442094096913934e-04</internalNodes>
          <leafValues>
            7.3090410232543945e-01 -3.0322402715682983e-01</leafValues></_></weakClassifiers></_>
    <!-- stage 10 -->
    <_>
      <maxWeakCount>7</maxWeakCount>
      <stageThreshold>-9.5777374505996704e-01</stageThreshold>
      <weakClassifiers>
        <_>
          <internalNodes>
            0 -1 81 7.1757184341549873e-03</internalNodes>
          <leafValues>
            -5.9733331203460693e-01 9.5999997854232788e-01</leafValues></_>
        <_>
          <internalNodes>
            0 -1 17 -7.2183366864919662e-03</internalNodes>
          <leafValues>
            2.7789255976676941e-01 -6.4458268880844116e-01</leafValues></_>
        <_>
          <internalNodes>
            0 -1 54 -1.2632921338081360e-02</internalNodes>
          <leafValues>
            2.7676656842231750e-01 -8.2633924484252930e-01</leafValues></_>
        <_>
          <internalNodes>
            0 -1 104 -1.8355617066845298e-04</internalNodes>
          <leafValues>
            -8.6349350214004517e-01 1.9801913201808929e-01</leafValues></_>
        <_>
          <internalNodes>
            0 -1 3 -6.9125397130846977e-03</internalNodes>
          <leafValues>
            1.6222795844078064e-01 -7.9027420282363892e-01</leafValues></_>
        <_>
          <internalNodes>
            0 -1 55 1.6967523843050003e-02</internalNodes>
          <leafValues>
            -9.1026902198791504e-01 1.6387367248535156e-01</leafValues></_>
        <_>
          <internalNodes>
            0 -1 75 -1.1394284665584564e-03</internalNodes>
          <leafValues>
            5.9798878431320190e-01 -3.3611443638801575e-01</leafValues></_></weakClassifiers></_>
    <!-- stage 11 -->
    <_>
      <maxWeakCount>6</maxWeakCount>
      <stageThreshold>-1.1484149694442749e+00</stageThreshold>
      <weakClassifiers>
        <_>
          <internalNodes>
            0 -1 115 2.3422487080097198e-02</internalNodes>
          <leafValues>
            -7.0754718780517578e-01 3.0487805604934692e-01</leafValues></_>
        <_>
          <internalNodes>
            0 -1 32 3.3442020416259766e-02</internalNodes>
          <leafValues>
            -9.5010173320770264e-01 1.3558022677898407e-01</leafValues></_>
        <_>
          <internalNodes>
            0 -1 130 5.2692275494337082e-03</internalNodes>
          <leafValues>
            -3.2004439830780029e-01 5.6782674789428711e-01</leafValues></_>
        <_>
          <internalNodes>
            0 -1 23 -1.0110375296790153e-04</internalNodes>
          <leafValues>
            -7.9805225133895874e-01 2.0958395302295685e-01</leafValues></_>
        <_>
          <internalNodes>
            0 -1 41 -6.0816542827524245e-05</internalNodes>
          <leafValues>
            -5.4584670066833496e-01 3.0350494384765625e-01</leafValues></_>
        <_>
          <internalNodes>
            0 -1 23 6.8002671469002962e-05</internalNodes>
          <leafValues>
            2.3814372718334198e-01 -7.6484906673431396e-01</leafValues></_></weakClassifiers></_>
    <!-- stage 12 -->
    <_>
      <maxWeakCount>8</maxWeakCount>
      <stageThreshold>-1.5389900207519531e+00</stageThreshold>
      <weakClassifiers>
        <_>
          <internalNodes>
            0 -1 76 -8.4844138473272324e-03</internalNodes>
          <leafValues>
            9.2156863212585449e-01 -5.9679573774337769e-01</leafValues></_>
        <_>
          <internalNodes>
            0 -1 120 -3.3394524361938238e-03</internalNodes>
          <leafValues>
            6.2182664871215820e-01 -3.2518061995506287e-01</leafValues></_>
        <_>
          <internalNodes>
            0 -1 26 -3.8550817407667637e-05</internalNodes>
          <leafValues>
            -7.5031584501266479e-01 2.3914121091365814e-01</leafValues></_>
        <_>
          <internalNodes>
            0 -1 132 -4.3437019921839237e-03</internalNodes>
          <leafValues>
            5.4954528808593750e-01 -3.1365227699279785e-01</leafValues></_>
        <_>
          <internalNodes>
            0 -1 60 -5.4238107986748219e-04</internalNodes>
          <leafValues>
            -7.8543215990066528e-01 2.4365244805812836e-01</leafValues></_>
        <_>
          <internalNodes>
            0 -1 37 -3.6743210512213409e-04</internalNodes>
          <leafValues>
            5.2490013837814331e-01 -3.3589652180671692e-01</leafValues></_>
        <_>
          <internalNodes>
            0 -1 56 3.2933803740888834e-03</internalNodes>
          <leafValues>
            3.2309681177139282e-01 -6.3887304067611694e-01</leafValues></_>
        <_>
          <internalNodes>
            0 -1 85 6.3143746228888631e-04</internalNodes>
          <leafValues>
            -2.7317804098129272e-01 7.5138664245605469e-01</leafValues></_></weakClassifiers></_>
    <!-- stage 13 -->
    <_>
      <maxWeakCount>8</maxWeakCount>
      <stageThreshold>-1.0741518735885620e+00</stageThreshold>
      <weakClassifiers>
        <_>
          <internalNodes>
            0 -1 89 -2.8542645741254091e-03</internalNodes>
          <leafValues>
            9.5999997854232788e-01 -5.9733331203460693e-01</leafValues></_>
        <_>
          <internalNodes>
            0 -1 77 2.2111576981842518e-03</internalNodes>
          <leafValues>
            -4.3723788857460022e-01 4.3243554234504700e-01</leafValues></_>
        <_>
          <internalNodes>
            0 -1 91 6.8276835372671485e-04</internalNodes>
          <leafValues>
            2.1030689775943756e-01 -9.1681611537933350e-01</leafValues></_>
        <_>
          <internalNodes>
            0 -1 112 8.0591458827257156e-03</internalNodes>
          <leafValues>
            -2.2253274917602539e-01 7.9752165079116821e-01</leafValues></_>
        <_>
          <internalNodes>
            0 -1 113 -1.3835637946613133e-04</internalNodes>
          <leafValues>
            5.4792845249176025e-01 -3.3115744590759277e-01</leafValues></_>
        <_>
          <internalNodes>
            0 -1 20 -1.3234786456450820e-04</internalNodes>
          <leafValues>
            -8.4476441144943237e-01 2.1233406662940979e-01</leafValues></_>
        <_>
          <internalNodes>
            0 -1 97 1.3735457323491573e-03</internalNodes>
          <leafValues>
            -2.1058057248592377e-01 8.8214010000228882e-01</leafValues></_>
        <_>
          <internalNodes>
            0 -1 50 1.0063465742859989e-04</internalNodes>
          <leafValues>
            -5.4102456569671631e-01 3.0204918980598450e-01</leafValues></_></weakClassifiers></_>
    <!-- stage 14 -->
    <_>
      <maxWeakCount>7</maxWeakCount>
      <stageThreshold>-1.3011271953582764e+00</stageThreshold>
      <weakClassifiers>
        <_>
          <internalNodes>
            0 -1 80 2.3911878466606140e-02</internalNodes>
          <leafValues>
            -5.8831340074539185e-01 9.1489362716674805e-01</leafValues></_>
        <_>
          <internalNodes>
            0 -1 1 -1.5963863581418991e-02</internalNodes>
          <leafValues>
            3.0435156822204590e-01 -5.9214073419570923e-01</leafValues></_>
        <_>
          <internalNodes>
            0 -1 19 8.4913612226955593e-05</internalNodes>
          <leafValues>
            2.2054766118526459e-01 -7.7916330099105835e-01</leafValues></_>
        <_>
          <internalNodes>
            0 -1 68 3.1929151155054569e-03</internalNodes>
          <leafValues>
            -1.7146961390972137e-01 8.6265689134597778e-01</leafValues></_>
        <_>
          <internalNodes>
            0 -1 43 -3.5892150481231511e-04</internalNodes>
          <leafValues>
            -5.4392880201339722e-01 3.0487191677093506e-01</leafValues></_>
        <_>
          <internalNodes>
            0 -1 79 -3.3133456599898636e-04</internalNodes>
          <leafValues>
            6.0643607378005981e-01 -2.3680777847766876e-01</leafValues></_>
        <_>
          <internalNodes>
            0 -1 48 8.9121254859492183e-04</internalNodes>
          <leafValues>
            -2.3781523108482361e-01 6.5056526660919189e-01</leafValues></_></weakClassifiers></_>
    <!-- stage 15 -->
    <_>
      <maxWeakCount>7</maxWeakCount>
      <stageThreshold>-1.0328328609466553e+00</stageThreshold>
      <weakClassifiers>
        <_>
          <internalNodes>
            0 -1 96 1.5028135385364294e-03</internalNodes>
          <leafValues>
            -5.8047491312026978e-01 9.5238095521926880e-01</leafValues></_>
        <_>
          <internalNodes>
            0 -1 92 -5.2211876027286053e-04</internalNodes>
          <leafValues>
            4.2540094256401062e-01 -4.3780997395515442e-01</leafValues></_>
        <_>
          <internalNodes>
            0 -1 106 -1.4314285479485989e-02</internalNodes>
          <leafValues>
            4.3224823474884033e-01 -4.0789061784744263e-01</leafValues></_>
        <_>
          <internalNodes>
            0 -1 36 -4.8351602163165808e-04</internalNodes>
          <leafValues>
            4.5355492830276489e-01 -3.0860885977745056e-01</leafValues></_>
        <_>
          <internalNodes>
            0 -1 5 1.1563782027224079e-04</internalNodes>
          <leafValues>
            2.0914737880229950e-01 -7.0846539735794067e-01</leafValues></_>
        <_>
          <internalNodes>
            0 -1 102 -2.6418536435812712e-04</internalNodes>
          <leafValues>
            4.9171134829521179e-01 -3.1349077820777893e-01</leafValues></_>
        <_>
          <internalNodes>
            0 -1 117 2.2732239449396729e-04</internalNodes>
          <leafValues>
            2.0346786081790924e-01 -8.3904612064361572e-01</leafValues></_></weakClassifiers></_>
    <!-- stage 16 -->
    <_>
      <maxWeakCount>10</maxWeakCount>
      <stageThreshold>-1.2223701477050781e+00</stageThreshold>
      <weakClassifiers>
        <_>
          <internalNodes>
            0 -1 90 -7.9133901745080948e-03</internalNodes>
          <leafValues>
            9.5833331346511841e-01 -5.9308511018753052e-01</leafValues></_>
        <_>
          <internalNodes>
            0 -1 13 -4.2725298553705215e-03</internalNodes>
          <leafValues>
            5.0099629163742065e-01 -3.6235818266868591e-01</leafValues></_>
        <_>
          <internalNodes>
            0 -1 22 -9.1254230937920511e-05</internalNodes>
          <leafValues>
            -6.4430046081542969e-01 2.5624108314514160e-01</leafValues></_>
        <_>
          <internalNodes>
            0 -1 95 2.1243527953629382e-05</internalNodes>
          <leafValues>
            -3.5221606492996216e-01 3.8829767704010010e-01</leafValues></_>
        <_>
          <internalNodes>
            0 -1 118 2.2573748719878495e-04</internalNodes>
          <leafValues>
            2.7916854619979858e-01 -5.5120819807052612e-01</leafValues></_>
        <_>
          <internalNodes>
            0 -1 31 2.3123752325773239e-03</internalNodes>
          <leafValues>
            -2.1964888274669647e-01 6.5446007251739502e-01</leafValues></_>
        <_>
          <internalNodes>
            0 -1 16 1.8802449631039053e-04</internalNodes>
          <leafValues>
            2.2035019099712372e-01 -6.8946939706802368e-01</leafValues></_>
        <_>
          <internalNodes>
            0 -1 33 -6.1143282800912857e-04</internalNodes>
          <leafValues>
            6.9739228487014771e-01 -2.6040354371070862e-01</leafValues></_>
        <_>
          <internalNodes>
            0 -1 114 -5.2912684623152018e-04</internalNodes>
          <leafValues>
            5.1149255037307739e-01 -2.9386803507804871e-01</leafValues></_>
        <_>
          <internalNodes>
            0 -1 94 -2.8056539595127106e-03</internalNodes>
          <leafValues>
            -6.1297583580017090e-01 2.6347762346267700e-01</leafValues></_></weakClassifiers></_>
    <!-- stage 17 -->
    <_>
      <maxWeakCount>9</maxWeakCount>
      <stageThreshold>-1.0122505426406860e+00</stageThreshold>
      <weakClassifiers>
        <_>
          <internalNodes>
            0 -1 82 -1.0368496179580688e-02</internalNodes>
          <leafValues>
            8.0769228935241699e-01 -5.9090906381607056e-01</leafValues></_>
        <_>
          <internalNodes>
            0 -1 119 5.2202520892024040e-03</internalNodes>
          <leafValues>
            -3.0082026124000549e-01 6.5804052352905273e-01</leafValues></_>
        <_>
          <internalNodes>
            0 -1 42 5.8700521476566792e-03</internalNodes>
          <leafValues>
            -1.4485752582550049e-01 6.8446928262710571e-01</leafValues></_>
        <_>
          <internalNodes>
            0 -1 116 -3.4768052864819765e-04</internalNodes>
          <leafValues>
            5.1961606740951538e-01 -2.4589760601520538e-01</leafValues></_>
        <_>
          <internalNodes>
            0 -1 134 -1.1362807708792388e-04</internalNodes>
          <leafValues>
            -8.9659273624420166e-01 1.7046254873275757e-01</leafValues></_>
        <_>
          <internalNodes>
            0 -1 83 1.5389741165563464e-03</internalNodes>
          <leafValues>
            -2.5651636719703674e-01 5.3895479440689087e-01</leafValues></_>
        <_>
          <internalNodes>
            0 -1 10 -1.1996456305496395e-04</internalNodes>
          <leafValues>
            -7.2678446769714355e-01 1.9337649643421173e-01</leafValues></_>
        <_>
          <internalNodes>
            0 -1 29 -9.5026131020858884e-04</internalNodes>
          <leafValues>
            4.6336573362350464e-01 -3.3821710944175720e-01</leafValues></_>
        <_>
          <internalNodes>
            0 -1 86 -2.6558749377727509e-03</internalNodes>
          <leafValues>
            6.3160061836242676e-01 -2.6438531279563904e-01</leafValues></_></weakClassifiers></_>
    <!-- stage 18 -->
    <_>
      <maxWeakCount>10</maxWeakCount>
      <stageThreshold>-1.2989042997360229e+00</stageThreshold>
      <weakClassifiers>
        <_>
          <internalNodes>
            0 -1 52 -1.6890113474801183e-03</internalNodes>
          <leafValues>
            8.9999997615814209e-01 -5.7368421554565430e-01</leafValues></_>
        <_>
          <internalNodes>
            0 -1 11 -4.0891204029321671e-02</internalNodes>
          <leafValues>
            2.2264240682125092e-01 -5.9637111425399780e-01</leafValues></_>
        <_>
          <internalNodes>
            0 -1 69 6.5907719545066357e-03</internalNodes>
          <leafValues>
            1.3869535923004150e-01 -9.4208395481109619e-01</leafValues></_>
        <_>
          <internalNodes>
            0 -1 88 -1.3309685746207833e-03</internalNodes>
          <leafValues>
            4.7522857785224915e-01 -2.9676178097724915e-01</leafValues></_>
        <_>
          <internalNodes>
            0 -1 51 7.9086358891800046e-04</internalNodes>
          <leafValues>
            2.3506313562393188e-01 -6.3757807016372681e-01</leafValues></_>
        <_>
          <internalNodes>
            0 -1 105 -6.4795982325449586e-04</internalNodes>
          <leafValues>
            5.2768260240554810e-01 -2.9062461853027344e-01</leafValues></_>
        <_>
          <internalNodes>
            0 -1 128 -4.9983279313892126e-04</internalNodes>
          <leafValues>
            4.7714048624038696e-01 -3.1619447469711304e-01</leafValues></_>
        <_>
          <internalNodes>
            0 -1 65 6.8738017944269814e-07</internalNodes>
          <leafValues>
            1.8236950039863586e-01 -9.1105258464813232e-01</leafValues></_>
        <_>
          <internalNodes>
            0 -1 135 6.4846535678952932e-05</internalNodes>
          <leafValues>
            1.7758437991142273e-01 -7.0911121368408203e-01</leafValues></_>
        <_>
          <internalNodes>
            0 -1 109 -7.6144672930240631e-03</internalNodes>
          <leafValues>
            1.5572470426559448e-01 -8.3235454559326172e-01</leafValues></_></weakClassifiers></_>
    <!-- stage 19 -->
    <_>
      <maxWeakCount>9</maxWeakCount>
      <stageThreshold>-1.4558725357055664e+00</stageThreshold>
      <weakClassifiers>
        <_>
          <internalNodes>
            0 -1 66 -1.2207436375319958e-03</internalNodes>
          <leafValues>
            4.3999999761581421e-01 -5.9724140167236328e-01</leafValues></_>
        <_>
          <internalNodes>
            0 -1 108 -2.5648484006524086e-03</internalNodes>
          <leafValues>
            -5.3783047199249268e-01 2.3046077787876129e-01</leafValues></_>
        <_>
          <internalNodes>
            0 -1 46 -9.9219344556331635e-03</internalNodes>
          <leafValues>
            -9.6433359384536743e-01 1.2643104791641235e-01</leafValues></_>
        <_>
          <internalNodes>
            0 -1 59 -3.3370472490787506e-02</internalNodes>
          <leafValues>
            2.4853408336639404e-01 -5.6621426343917847e-01</leafValues></_>
        <_>
          <internalNodes>
            0 -1 15 -2.7651176787912846e-03</internalNodes>
          <leafValues>
            3.0317088961601257e-01 -4.1239163279533386e-01</leafValues></_>
        <_>
          <internalNodes>
            0 -1 28 1.0220279364148155e-04</internalNodes>
          <leafValues>
            1.6930258274078369e-01 -8.4500306844711304e-01</leafValues></_>
        <_>
          <internalNodes>
            0 -1 62 -5.3873704746365547e-04</internalNodes>
          <leafValues>
            3.7941408157348633e-01 -3.5618579387664795e-01</leafValues></_>
        <_>
          <internalNodes>
            0 -1 101 4.7380650357808918e-05</internalNodes>
          <leafValues>
            1.9650518894195557e-01 -6.9200295209884644e-01</leafValues></_>
        <_>
          <internalNodes>
            0 -1 122 -9.3272700905799866e-04</internalNodes>
          <leafValues>
            5.2462291717529297e-01 -2.9299619793891907e-01</leafValues></_></weakClassifiers></_></stages>
  <features>
    <_>
      <rects>
        <_>
          0 0 2 4 -1.</_>
        <_>
          1 0 1 4 2.</_></rects>
      <tilted>0</tilted></_>
    <_>
      <rects>
        <_>
          0 0 21 37 -1.</_>
        <_>
          7 0 7 37 3.</_></rects>
      <tilted>0</tilted></_>
    <_>
      <rects>
        <_>
          0 0 28 39 -1.</_>
        <_>
          7 0 14 39 2.</_></rects>
      <tilted>0</tilted></_>
    <_>
      <rects>
        <_>
          0 0 34 29 -1.</_>
        <_>
          17 0 17 29 2.</_></rects>
      <tilted>0</tilted></_>
    <_>
      <rects>
        <_>
          0 0 78 39 -1.</_>
        <_>
          26 13 26 13 9.</_></rects>
      <tilted>0</tilted></_>
    <_>
      <rects>
        <_>
          0 1 2 7 -1.</_>
        <_>
          1 1 1 7 2.</_></rects>
      <tilted>0</tilted></_>
    <_>
      <rects>
        <_>
          0 1 16 31 -1.</_>
        <_>
          8 1 8 31 2.</_></rects>
      <tilted>0</tilted></_>
    <_>
      <rects>
        <_>
          0 1 16 38 -1.</_>
        <_>
          8 1 8 38 2.</_></rects>
      <tilted>0</tilted></_>
    <_>
      <rects>
        <_>
          0 1 32 38 -1.</_>
        <_>
          8 1 16 38 2.</_></rects>
      <tilted>0</tilted></_>
    <_>
      <rects>
        <_>
          0 2 14 38 -1.</_>
        <_>
          7 2 7 38 2.</_></rects>
      <tilted>0</tilted></_>
    <_>
      <rects>
        <_>
          0 4 2 2 -1.</_>
        <_>
          1 4 1 2 2.</_></rects>
      <tilted>0</tilted></_>
    <_>
      <rects>
        <_>
          0 5 20 33 -1.</_>
        <_>
          10 5 10 33 2.</_></rects>
      <tilted>0</tilted></_>
    <_>
      <rects>
        <_>
          0 9 14 27 -1.</_>
        <_>
          7 9 7 27 2.</_></rects>
      <tilted>0</tilted></_>
    <_>
      <rects>
        <_>
          0 10 12 19 -1.</_>
        <_>
          3 10 6 19 2.</_></rects>
      <tilted>0</tilted></_>
    <_>
      <rects>
        <_>
          0 10 18 17 -1.</_>
        <_>
          9 10 9 17 2.</_></rects>
      <tilted>0</tilted></_>
    <_>
      <rects>
        <_>
          0 23 21 3 -1.</_>
        <_>
          7 23 7 3 3.</_></rects>
      <tilted>0</tilted></_>
    <_>
      <rects>
        <_>
          0 36 4 4 -1.</_>
        <_>
          0 36 2 2 2.</_>
        <_>
          2 38 2 2 2.</_></rects>
      <tilted>0</tilted></_>
    <_>
      <rects>
        <_>
          1 6 20 31 -1.</_>
        <_>
          6 6 10 31 2.</_></rects>
      <tilted>0</tilted></_>
    <_>
      <rects>
        <_>
          1 10 44 25 -1.</_>
        <_>
          12 10 22 25 2.</_></rects>
      <tilted>0</tilted></_>
    <_>
      <rects>
        <_>
          1 36 2 4 -1.</_>
        <_>
          2 36 1 4 2.</_></rects>
      <tilted>0</tilted></_>
    <_>
      <rects>
        <_>
          1 38 2 2 -1.</_>
        <_>
          2 38 1 2 2.</_></rects>
      <tilted>0</tilted></_>
    <_>
      <rects>
        <_>
          2 1 30 30 -1.</_>
        <_>
          12 11 10 10 9.</_></rects>
      <tilted>0</tilted></_>
    <_>
      <rects>
        <_>
          2 11 2 2 -1.</_>
        <_>
          3 11 1 2 2.</_></rects>
      <tilted>0</tilted></_>
    <_>
      <rects>
        <_>
          3 35 2 2 -1.</_>
        <_>
          4 35 1 2 2.</_></rects>
      <tilted>0</tilted></_>
    <_>
      <rects>
        <_>
          4 0 75 39 -1.</_>
        <_>
          29 13 25 13 9.</_></rects>
      <tilted>0</tilted></_>
    <_>
      <rects>
        <_>
          4 4 3 1 -1.</_>
        <_>
          5 4 1 1 3.</_></rects>
      <tilted>0</tilted></_>
    <_>
      <rects>
        <_>
          4 34 1 2 -1.</_>
        <_>
          4 35 1 1 2.</_></rects>
      <tilted>0</tilted></_>
    <_>
      <rects>
        <_>
          7 0 4 1 -1.</_>
        <_>
          8 0 2 1 2.</_></rects>
      <tilted>0</tilted></_>
    <_>
      <rects>
        <_>
          9 5 4 1 -1.</_>
        <_>
          11 5 2 1 2.</_></rects>
      <tilted>0</tilted></_>
    <_>
      <rects>
        <_>
          12 26 16 6 -1.</_>
        <_>
          12 26 8 3 2.</_>
        <_>
          20 29 8 3 2.</_></rects>
      <tilted>0</tilted></_>
    <_>
      <rects>
        <_>
          14 10 60 17 -1.</_>
        <_>
          44 10 30 17 2.</_></rects>
      <tilted>0</tilted></_>
    <_>
      <rects>
        <_>
          16 8 24 4 -1.</_>
        <_>
          16 8 12 2 2.</_>
        <_>
          28 10 12 2 2.</_></rects>
      <tilted>0</tilted></_>
    <_>
      <rects>
        <_>
          16 10 64 18 -1.</_>
        <_>
          48 10 32 18 2.</_></rects>
      <tilted>0</tilted></_>
    <_>
      <rects>
        <_>
          17 24 12 2 -1.</_>
        <_>
          17 24 6 1 2.</_>
        <_>
          23 25 6 1 2.</_></rects>
      <tilted>0</tilted></_>
    <_>
      <rects>
        <_>
          19 0 17 36 -1.</_>
        <_>
          19 12 17 12 3.</_></rects>
      <tilted>0</tilted></_>
    <_>
      <rects>
        <_>
          19 12 28 9 -1.</_>
        <_>
          33 12 14 9 2.</_></rects>
      <tilted>0</tilted></_>
    <_>
      <rects>
        <_>
          19 27 15 2 -1.</_>
        <_>
          24 27 5 2 3.</_></rects>
      <tilted>0</tilted></_>
    <_>
      <rects>
        <_>
          20 26 8 6 -1.</_>
        <_>
          20 29 8 3 2.</_></rects>
      <tilted>0</tilted></_>
    <_>
      <rects>
        <_>
          22 8 42 32 -1.</_>
        <_>
          22 24 42 16 2.</_></rects>
      <tilted>0</tilted></_>
    <_>
      <rects>
        <_>
          23 0 38 39 -1.</_>
        <_>
          23 13 38 13 3.</_></rects>
      <tilted>0</tilted></_>
    <_>
      <rects>
        <_>
          23 25 7 4 -1.</_>
        <_>
          23 27 7 2 2.</_></rects>
      <tilted>0</tilted></_>
    <_>
      <rects>
        <_>
          23 30 2 1 -1.</_>
        <_>
          23 30 1 1 2.</_></rects>
      <tilted>1</tilted></_>
    <_>
      <rects>
        <_>
          24 6 26 6 -1.</_>
        <_>
          24 6 13 3 2.</_>
        <_>
          37 9 13 3 2.</_></rects>
      <tilted>0</tilted></_>
    <_>
      <rects>
        <_>
          27 6 14 18 -1.</_>
        <_>
          27 6 7 9 2.</_>
        <_>
          34 15 7 9 2.</_></rects>
      <tilted>0</tilted></_>
    <_>
      <rects>
        <_>
          27 6 24 25 -1.</_>
        <_>
          39 6 12 25 2.</_></rects>
      <tilted>0</tilted></_>
    <_>
      <rects>
        <_>
          27 8 14 31 -1.</_>
        <_>
          34 8 7 31 2.</_></rects>
      <tilted>0</tilted></_>
    <_>
      <rects>
        <_>
          27 9 32 19 -1.</_>
        <_>
          43 9 16 19 2.</_></rects>
      <tilted>0</tilted></_>
    <_>
      <rects>
        <_>
          27 13 46 11 -1.</_>
        <_>
          50 13 23 11 2.</_></rects>
      <tilted>0</tilted></_>
    <_>
      <rects>
        <_>
          27 29 14 2 -1.</_>
        <_>
          27 29 7 1 2.</_>
        <_>
          34 30 7 1 2.</_></rects>
      <tilted>0</tilted></_>
    <_>
      <rects>
        <_>
          28 10 43 30 -1.</_>
        <_>
          28 20 43 10 3.</_></rects>
      <tilted>0</tilted></_>
    <_>
      <rects>
        <_>
          28 17 20 6 -1.</_>
        <_>
          38 17 10 6 2.</_></rects>
      <tilted>0</tilted></_>
    <_>
      <rects>
        <_>
          29 9 15 14 -1.</_>
        <_>
          34 9 5 14 3.</_></rects>
      <tilted>0</tilted></_>
    <_>
      <rects>
        <_>
          29 26 3 4 -1.</_>
        <_>
          29 27 3 2 2.</_></rects>
      <tilted>0</tilted></_>
    <_>
      <rects>
        <_>
          30 0 21 21 -1.</_>
        <_>
          37 7 7 7 9.</_></rects>
      <tilted>0</tilted></_>
    <_>
      <rects>
        <_>
          30 8 42 23 -1.</_>
        <_>
          44 8 14 23 3.</_></rects>
      <tilted>0</tilted></_>
    <_>
      <rects>
        <_>
          30 12 18 28 -1.</_>
        <_>
          30 26 18 14 2.</_></rects>
      <tilted>0</tilted></_>
    <_>
      <rects>
        <_>
          30 13 16 10 -1.</_>
        <_>
          38 13 8 10 2.</_></rects>
      <tilted>0</tilted></_>
    <_>
      <rects>
        <_>
          31 0 16 21 -1.</_>
        <_>
          24 7 16 7 3.</_></rects>
      <tilted>1</tilted></_>
    <_>
      <rects>
        <_>
          32 1 2 32 -1.</_>
        <_>
          24 9 2 16 2.</_></rects>
      <tilted>1</tilted></_>
    <_>
      <rects>
        <_>
          32 1 42 36 -1.</_>
        <_>
          46 1 14 36 3.</_></rects>
      <tilted>0</tilted></_>
    <_>
      <rects>
        <_>
          33 13 8 8 -1.</_>
        <_>
          37 13 4 8 2.</_></rects>
      <tilted>0</tilted></_>
    <_>
      <rects>
        <_>
          33 19 9 9 -1.</_>
        <_>
          36 22 3 3 9.</_></rects>
      <tilted>0</tilted></_>
    <_>
      <rects>
        <_>
          33 26 6 3 -1.</_>
        <_>
          35 27 2 1 9.</_></rects>
      <tilted>0</tilted></_>
    <_>
      <rects>
        <_>
          34 8 39 24 -1.</_>
        <_>
          47 8 13 24 3.</_></rects>
      <tilted>0</tilted></_>
    <_>
      <rects>
        <_>
          34 15 13 12 -1.</_>
        <_>
          34 21 13 6 2.</_></rects>
      <tilted>0</tilted></_>
    <_>
      <rects>
        <_>
          34 19 11 9 -1.</_>
        <_>
          34 22 11 3 3.</_></rects>
      <tilted>0</tilted></_>
    <_>
      <rects>
        <_>
          34 27 4 3 -1.</_>
        <_>
          34 28 4 1 3.</_></rects>
      <tilted>0</tilted></_>
    <_>
      <rects>
        <_>
          35 0 12 20 -1.</_>
        <_>
          35 5 12 10 2.</_></rects>
      <tilted>0</tilted></_>
    <_>
      <rects>
        <_>
          35 7 8 6 -1.</_>
        <_>
          35 9 8 2 3.</_></rects>
      <tilted>0</tilted></_>
    <_>
      <rects>
        <_>
          35 9 18 15 -1.</_>
        <_>
          41 9 6 15 3.</_></rects>
      <tilted>0</tilted></_>
    <_>
      <rects>
        <_>
          35 9 40 18 -1.</_>
        <_>
          55 9 20 18 2.</_></rects>
      <tilted>0</tilted></_>
    <_>
      <rects>
        <_>
          35 13 2 26 -1.</_>
        <_>
          35 26 2 13 2.</_></rects>
      <tilted>0</tilted></_>
    <_>
      <rects>
        <_>
          35 14 10 8 -1.</_>
        <_>
          35 16 10 4 2.</_></rects>
      <tilted>0</tilted></_>
    <_>
      <rects>
        <_>
          35 16 40 11 -1.</_>
        <_>
          55 16 20 11 2.</_></rects>
      <tilted>0</tilted></_>
    <_>
      <rects>
        <_>
          35 18 11 6 -1.</_>
        <_>
          35 21 11 3 2.</_></rects>
      <tilted>0</tilted></_>
    <_>
      <rects>
        <_>
          35 29 4 6 -1.</_>
        <_>
          35 31 4 2 3.</_></rects>
      <tilted>0</tilted></_>
    <_>
      <rects>
        <_>
          36 6 9 8 -1.</_>
        <_>
          36 8 9 4 2.</_></rects>
      <tilted>0</tilted></_>
    <_>
      <rects>
        <_>
          36 13 7 12 -1.</_>
        <_>
          36 16 7 6 2.</_></rects>
      <tilted>0</tilted></_>
    <_>
      <rects>
        <_>
          36 19 7 9 -1.</_>
        <_>
          36 22 7 3 3.</_></rects>
      <tilted>0</tilted></_>
    <_>
      <rects>
        <_>
          36 29 4 3 -1.</_>
        <_>
          36 30 4 1 3.</_></rects>
      <tilted>0</tilted></_>
    <_>
      <rects>
        <_>
          37 9 7 12 -1.</_>
        <_>
          37 13 7 4 3.</_></rects>
      <tilted>0</tilted></_>
    <_>
      <rects>
        <_>
          37 11 6 8 -1.</_>
        <_>
          37 13 6 4 2.</_></rects>
      <tilted>0</tilted></_>
    <_>
      <rects>
        <_>
          37 14 7 6 -1.</_>
        <_>
          37 17 7 3 2.</_></rects>
      <tilted>0</tilted></_>
    <_>
      <rects>
        <_>
          37 18 9 17 -1.</_>
        <_>
          40 18 3 17 3.</_></rects>
      <tilted>0</tilted></_>
    <_>
      <rects>
        <_>
          37 28 6 3 -1.</_>
        <_>
          39 29 2 1 9.</_></rects>
      <tilted>0</tilted></_>
    <_>
      <rects>
        <_>
          37 29 3 4 -1.</_>
        <_>
          37 30 3 2 2.</_></rects>
      <tilted>0</tilted></_>
    <_>
      <rects>
        <_>
          37 29 12 3 -1.</_>
        <_>
          41 30 4 1 9.</_></rects>
      <tilted>0</tilted></_>
    <_>
      <rects>
        <_>
          38 2 4 8 -1.</_>
        <_>
          38 6 4 4 2.</_></rects>
      <tilted>0</tilted></_>
    <_>
      <rects>
        <_>
          38 5 5 6 -1.</_>
        <_>
          38 7 5 2 3.</_></rects>
      <tilted>0</tilted></_>
    <_>
      <rects>
        <_>
          38 14 2 6 -1.</_>
        <_>
          38 17 2 3 2.</_></rects>
      <tilted>0</tilted></_>
    <_>
      <rects>
        <_>
          38 14 5 6 -1.</_>
        <_>
          38 17 5 3 2.</_></rects>
      <tilted>0</tilted></_>
    <_>
      <rects>
        <_>
          38 17 6 4 -1.</_>
        <_>
          40 17 2 4 3.</_></rects>
      <tilted>0</tilted></_>
    <_>
      <rects>
        <_>
          38 27 6 3 -1.</_>
        <_>
          40 28 2 1 9.</_></rects>
      <tilted>0</tilted></_>
    <_>
      <rects>
        <_>
          38 27 4 9 -1.</_>
        <_>
          38 30 4 3 3.</_></rects>
      <tilted>0</tilted></_>
    <_>
      <rects>
        <_>
          39 5 4 30 -1.</_>
        <_>
          39 5 2 30 2.</_></rects>
      <tilted>1</tilted></_>
    <_>
      <rects>
        <_>
          39 16 1 2 -1.</_>
        <_>
          39 17 1 1 2.</_></rects>
      <tilted>0</tilted></_>
    <_>
      <rects>
        <_>
          39 27 2 3 -1.</_>
        <_>
          39 28 2 1 3.</_></rects>
      <tilted>0</tilted></_>
    <_>
      <rects>
        <_>
          39 28 10 2 -1.</_>
        <_>
          39 28 5 1 2.</_>
        <_>
          44 29 5 1 2.</_></rects>
      <tilted>0</tilted></_>
    <_>
      <rects>
        <_>
          39 28 5 6 -1.</_>
        <_>
          39 30 5 2 3.</_></rects>
      <tilted>0</tilted></_>
    <_>
      <rects>
        <_>
          39 31 12 2 -1.</_>
        <_>
          39 31 6 1 2.</_>
        <_>
          45 32 6 1 2.</_></rects>
      <tilted>0</tilted></_>
    <_>
      <rects>
        <_>
          40 0 16 13 -1.</_>
        <_>
          40 0 8 13 2.</_></rects>
      <tilted>1</tilted></_>
    <_>
      <rects>
        <_>
          40 19 2 2 -1.</_>
        <_>
          41 19 1 2 2.</_></rects>
      <tilted>0</tilted></_>
    <_>
      <rects>
        <_>
          41 11 6 3 -1.</_>
        <_>
          41 12 6 1 3.</_></rects>
      <tilted>0</tilted></_>
    <_>
      <rects>
        <_>
          42 7 8 6 -1.</_>
        <_>
          42 7 4 6 2.</_></rects>
      <tilted>1</tilted></_>
    <_>
      <rects>
        <_>
          42 16 2 6 -1.</_>
        <_>
          42 16 2 3 2.</_></rects>
      <tilted>1</tilted></_>
    <_>
      <rects>
        <_>
          42 29 2 6 -1.</_>
        <_>
          42 31 2 2 3.</_></rects>
      <tilted>0</tilted></_>
    <_>
      <rects>
        <_>
          47 7 24 26 -1.</_>
        <_>
          55 7 8 26 3.</_></rects>
      <tilted>0</tilted></_>
    <_>
      <rects>
        <_>
          49 1 24 15 -1.</_>
        <_>
          55 7 12 15 2.</_></rects>
      <tilted>1</tilted></_>
    <_>
      <rects>
        <_>
          51 2 12 21 -1.</_>
        <_>
          51 2 6 21 2.</_></rects>
      <tilted>1</tilted></_>
    <_>
      <rects>
        <_>
          52 11 20 9 -1.</_>
        <_>
          52 11 10 9 2.</_></rects>
      <tilted>1</tilted></_>
    <_>
      <rects>
        <_>
          54 13 3 24 -1.</_>
        <_>
          54 13 3 12 2.</_></rects>
      <tilted>1</tilted></_>
    <_>
      <rects>
        <_>
          55 12 12 15 -1.</_>
        <_>
          59 12 4 15 3.</_></rects>
      <tilted>0</tilted></_>
    <_>
      <rects>
        <_>
          57 14 12 10 -1.</_>
        <_>
          61 14 4 10 3.</_></rects>
      <tilted>0</tilted></_>
    <_>
      <rects>
        <_>
          57 17 6 8 -1.</_>
        <_>
          60 17 3 8 2.</_></rects>
      <tilted>0</tilted></_>
    <_>
      <rects>
        <_>
          57 24 6 3 -1.</_>
        <_>
          59 25 2 1 9.</_></rects>
      <tilted>0</tilted></_>
    <_>
      <rects>
        <_>
          58 3 20 30 -1.</_>
        <_>
          63 3 10 30 2.</_></rects>
      <tilted>0</tilted></_>
    <_>
      <rects>
        <_>
          58 21 6 4 -1.</_>
        <_>
          61 21 3 4 2.</_></rects>
      <tilted>0</tilted></_>
    <_>
      <rects>
        <_>
          58 38 4 2 -1.</_>
        <_>
          60 38 2 2 2.</_></rects>
      <tilted>0</tilted></_>
    <_>
      <rects>
        <_>
          59 0 4 5 -1.</_>
        <_>
          61 0 2 5 2.</_></rects>
      <tilted>0</tilted></_>
    <_>
      <rects>
        <_>
          59 10 8 23 -1.</_>
        <_>
          61 10 4 23 2.</_></rects>
      <tilted>0</tilted></_>
    <_>
      <rects>
        <_>
          60 6 4 8 -1.</_>
        <_>
          58 8 4 4 2.</_></rects>
      <tilted>1</tilted></_>
    <_>
      <rects>
        <_>
          62 2 10 28 -1.</_>
        <_>
          55 9 10 14 2.</_></rects>
      <tilted>1</tilted></_>
    <_>
      <rects>
        <_>
          64 0 3 36 -1.</_>
        <_>
          65 0 1 36 3.</_></rects>
      <tilted>0</tilted></_>
    <_>
      <rects>
        <_>
          64 1 12 36 -1.</_>
        <_>
          68 1 4 36 3.</_></rects>
      <tilted>0</tilted></_>
    <_>
      <rects>
        <_>
          64 1 11 20 -1.</_>
        <_>
          64 1 11 10 2.</_></rects>
      <tilted>1</tilted></_>
    <_>
      <rects>
        <_>
          64 33 2 2 -1.</_>
        <_>
          65 33 1 2 2.</_></rects>
      <tilted>0</tilted></_>
    <_>
      <rects>
        <_>
          65 9 12 27 -1.</_>
        <_>
          69 9 4 27 3.</_></rects>
      <tilted>0</tilted></_>
    <_>
      <rects>
        <_>
          66 7 12 27 -1.</_>
        <_>
          70 7 4 27 3.</_></rects>
      <tilted>0</tilted></_>
    <_>
      <rects>
        <_>
          66 11 3 23 -1.</_>
        <_>
          67 11 1 23 3.</_></rects>
      <tilted>0</tilted></_>
    <_>
      <rects>
        <_>
          66 16 12 18 -1.</_>
        <_>
          69 16 6 18 2.</_></rects>
      <tilted>0</tilted></_>
    <_>
      <rects>
        <_>
          68 11 9 16 -1.</_>
        <_>
          71 11 3 16 3.</_></rects>
      <tilted>0</tilted></_>
    <_>
      <rects>
        <_>
          69 0 2 2 -1.</_>
        <_>
          70 0 1 2 2.</_></rects>
      <tilted>0</tilted></_>
    <_>
      <rects>
        <_>
          71 5 9 26 -1.</_>
        <_>
          74 5 3 26 3.</_></rects>
      <tilted>0</tilted></_>
    <_>
      <rects>
        <_>
          72 0 2 28 -1.</_>
        <_>
          72 0 2 14 2.</_></rects>
      <tilted>1</tilted></_>
    <_>
      <rects>
        <_>
          73 1 2 2 -1.</_>
        <_>
          74 1 1 2 2.</_></rects>
      <tilted>0</tilted></_>
    <_>
      <rects>
        <_>
          75 16 2 2 -1.</_>
        <_>
          76 16 1 2 2.</_></rects>
      <tilted>0</tilted></_>
    <_>
      <rects>
        <_>
          77 17 1 6 -1.</_>
        <_>
          77 20 1 3 2.</_></rects>
      <tilted>0</tilted></_></features></cascade>
</opencv_storage>
